[unifb]
-0.19487

\data\
ngram 1=17
ngram 2=22
ngram 3=19

\1-grams:
-0.952055	</unk>
-1.64137	‚«‚å	-0.0855129
-1.64137	‚¤	-0.0855129
-1.64137	‚¦	-0.0855129
-1.17228	<s>	-0.105265
-1.64137	‚©	-0.0855129
-1.64137	‚«	-0.0855129
-1.64137	‚½	-0.0855129
-1.45777	‚¹	-0.105265
-1.45777	‚Ì	-0.105265
-1.64137	‚Î	-0.0855129
-1.64137	<sp>	-0.0855129
-1.64137	‚Ü	-0.0855129
-1.64137	‚Û	-0.0855129
-1.64137	‚ä	-0.0855129
-1.64137	‚í	-0.0855129
-1.64137	</s>	-0.0855129

\2-grams:
-0.820734	<unk> <s>	-0.0867959
-0.918367	<unk> <sp>	-0.0867959
-0.918367	<unk> ‚ä	-0.0867959
-0.699295	‚½ ‚Ü	-0.0867959
-0.739113	<s> <s>	-0.0867959
-0.82467	<s> ‚Û	-0.0867959
-0.82467	‚Ì ‚½	-0.0867959
-0.82467	‚Ì ‚Î	-0.0867959
-0.678424	‚Û ‚Ì	-0.0867959
-0.678424	‚Î ‚¹	-0.0867959
-0.699295	<sp> </s>	-0.0867959
-0.564485	‚« </unk>
-0.678424	‚ä ‚¹	-0.0867959
-0.564485	</s> </unk>
-0.699295	‚© ‚«‚å	-0.0867959
-0.699295	‚«‚å ‚¤	-0.0867959
-0.699295	‚í ‚©	-0.0867959
-0.699295	‚¦ ‚í	-0.0867959
-0.699295	‚Ü ‚¦	-0.0867959
-0.82467	‚¹ ‚«	-0.0867959
-0.799814	‚¹ ‚Ì	-0.0867959
-0.564485	‚¤ </unk>

\3-grams:
-0.486878	‚Ì ‚½ ‚Ü
-0.50699	<unk> <s> <s>
-0.547123	<s> <s> ‚Û
-0.547123	‚Û ‚Ì ‚Î
-0.547123	‚¹ ‚Ì ‚½
-0.475972	<s> ‚Û ‚Ì
-0.475972	‚Ì ‚Î ‚¹
-0.486878	<unk> <sp> </s>
-0.412055	‚¹ ‚« </unk>
-0.475972	<unk> ‚ä ‚¹
-0.412055	<sp> </s> </unk>
-0.486878	‚í ‚© ‚«‚å
-0.486878	‚© ‚«‚å ‚¤
-0.486878	‚¦ ‚í ‚©
-0.486878	‚Ü ‚¦ ‚í
-0.486878	‚½ ‚Ü ‚¦
-0.535896	‚Î ‚¹ ‚Ì
-0.547123	‚ä ‚¹ ‚«
-0.412055	‚«‚å ‚¤ </unk>
