[unifb]
-0.513842

\data\
ngram 1=17
ngram 2=22
ngram 3=19

\1-grams:
-0.982189	</unk>
-1.44161	‚«‚å	-0.0498201
-1.44161	‚¤	-0.0498201
-1.44161	‚¢	-0.0498201
-1.17293	<s>	-0.0935113
-1.44161	‚«	-0.0498201
-1.44161	‚²	-0.0498201
-1.44161	‚¾	-0.0498201
-1.44161	‚¹	-0.0498201
-1.44161	‚Á	-0.0498201
-1.44161	‚Â	-0.0498201
-1.15379	‚Ì	-0.0935113
-1.15379	‚Ü	-0.0935113
-1.44161	‚ä	-0.0498201
-1.44161	‚ç	-0.0498201
-1.44161	‚í	-0.0498201
-1.44161	</s>	-0.0498201

\2-grams:
-0.872665	<unk> <s>	-0.0585136
-0.955154	<unk> ‚²	-0.0585136
-0.955154	<unk> ‚ä	-0.0585136
-0.811621	<s> <s>	-0.0585136
-0.887526	<s> ‚Á	-0.0585136
-0.887526	‚Ì ‚¾	-0.0585136
-0.804874	‚Ì ‚Ü	-0.0585136
-0.663332	‚Á </unk>
-0.802268	‚í ‚«‚å	-0.0585136
-0.727268	‚² ‚Ì	-0.0585136
-0.887526	‚Ü ‚Â	-0.0585136
-0.887526	‚Ü ‚ç	-0.0585136
-0.663332	</s> </unk>
-0.802268	‚« ‚¢	-0.0585136
-0.802268	‚ä ‚¹	-0.0585136
-0.802268	‚¹ ‚«	-0.0585136
-0.663332	‚¤ </unk>
-0.802268	‚ç ‚í	-0.0585136
-0.802268	‚«‚å ‚¤	-0.0585136
-0.727268	‚¾ ‚Ü	-0.0585136
-0.802268	‚¢ </s>	-0.0585136
-0.727268	‚Â ‚Ì	-0.0585136

\3-grams:
-0.405633	<unk> <s> <s>
-0.425718	<s> <s> ‚Á
-0.403721	‚² ‚Ì ‚Ü
-0.425718	‚Â ‚Ì ‚¾
-0.358473	<s> ‚Á </unk>
-0.402977	‚ç ‚í ‚«‚å
-0.380155	<unk> ‚² ‚Ì
-0.425718	‚Ì ‚Ü ‚Â
-0.425718	‚¾ ‚Ü ‚ç
-0.358473	‚¢ </s> </unk>
-0.402977	‚¹ ‚« ‚¢
-0.402977	<unk> ‚ä ‚¹
-0.402977	‚ä ‚¹ ‚«
-0.358473	‚«‚å ‚¤ </unk>
-0.402977	‚Ü ‚ç ‚í
-0.402977	‚í ‚«‚å ‚¤
-0.380155	‚Ì ‚¾ ‚Ü
-0.402977	‚« ‚¢ </s>
-0.380155	‚Ü ‚Â ‚Ì
