[unifb]
-0.0886823

\data\
ngram 1=17
ngram 2=22
ngram 3=19

\1-grams:
-1.16503	</unk>
-1.73186	‚«‚å	-0.0409839
-1.73186	‚¤	-0.0409839
-1.73186	‚¢	-0.0409839
-1.63331	<s>	-0.0442219
-1.73186	‚«	-0.0409839
-1.73186	‚²	-0.0409839
-1.73186	‚¾	-0.0409839
-1.73186	‚¹	-0.0409839
-1.73186	‚Á	-0.0409839
-1.73186	‚Â	-0.0409839
-1.19611	‚Ì	-0.0442219
-1.63331	‚Ü	-0.0442219
-1.73186	‚ä	-0.0409839
-1.73186	‚ç	-0.0409839
-1.73186	‚í	-0.0409839
-1.73186	</s>	-0.0409839

\2-grams:
-0.976	<unk> <s>	-0.0641096
-0.990489	<unk> ‚²	-0.0641096
-0.990489	<unk> ‚ä	-0.0641096
-0.899848	<s> <s>	-0.0641096
-0.912819	<s> ‚Á	-0.0641096
-0.912819	‚Ì ‚¾	-0.0641096
-0.899848	‚Ì ‚Ü	-0.0641096
-0.707213	‚Á </unk>
-0.814639	‚í ‚«‚å	-0.0641096
-0.716325	‚² ‚Ì	-0.0641096
-0.912819	‚Ü ‚Â	-0.0641096
-0.912819	‚Ü ‚ç	-0.0641096
-0.707213	</s> </unk>
-0.814639	‚« ‚¢	-0.0641096
-0.814639	‚ä ‚¹	-0.0641096
-0.814639	‚¹ ‚«	-0.0641096
-0.707213	‚¤ </unk>
-0.814639	‚ç ‚í	-0.0641096
-0.814639	‚«‚å ‚¤	-0.0641096
-0.803242	‚¾ ‚Ü	-0.0641096
-0.814639	‚¢ </s>	-0.0641096
-0.716325	‚Â ‚Ì	-0.0641096

\3-grams:
-0.42874	<unk> <s> <s>
-0.431851	<s> <s> ‚Á
-0.42874	‚² ‚Ì ‚Ü
-0.431851	‚Â ‚Ì ‚¾
-0.37358	<s> ‚Á </unk>
-0.406482	‚ç ‚í ‚«‚å
-0.376593	<unk> ‚² ‚Ì
-0.431851	‚Ì ‚Ü ‚Â
-0.431851	‚¾ ‚Ü ‚ç
-0.37358	‚¢ </s> </unk>
-0.406482	‚¹ ‚« ‚¢
-0.406482	<unk> ‚ä ‚¹
-0.406482	‚ä ‚¹ ‚«
-0.37358	‚«‚å ‚¤ </unk>
-0.406482	‚Ü ‚ç ‚í
-0.406482	‚í ‚«‚å ‚¤
-0.403255	‚Ì ‚¾ ‚Ü
-0.406482	‚« ‚¢ </s>
-0.376593	‚Ü ‚Â ‚Ì
