[unifb]
-0.135079

\data\
ngram 1=17
ngram 2=24
ngram 3=19

\1-grams:
-0.85447	</unk>
-1.79782	‚«‚å	-0.0202167
-1.79782	‚¤	-0.0202167
-1.79782	‚¦	-0.0202167
-1.25141	<s>	-0.0268036
-1.79782	‚¨	-0.0202167
-1.25141	‚«	-0.0268036
-1.79782	‚²	-0.0202167
-1.79782	‚½	-0.0202167
-1.71133	‚¹	-0.0268036
-1.79782	‚Ì	-0.0202167
-1.79782	‚Î	-0.0202167
-1.79782	‚Ü	-0.0202167
-1.79782	‚ä	-0.0202167
-1.79782	‚à	-0.0202167
-1.79782	‚í	-0.0202167
-1.79782	</s>	-0.0202167

\2-grams:
-0.971326	<unk> <s>	-0.0767198
-1.0923	<unk> ‚¨	-0.0767198
-1.0923	<unk> ‚²	-0.0767198
-1.08026	<unk> ‚¹	-0.0767198
-1.0923	<unk> ‚ä	-0.0767198
-0.756269	‚½ ‚Ü	-0.0767198
-0.642213	<s> </unk>
-0.783422	<s> <s>	-0.0767198
-0.756269	‚Ì ‚½	-0.0767198
-0.554243	‚² </unk>
-0.756269	‚¨ ‚à	-0.0767198
-0.756269	‚à ‚Î	-0.0767198
-0.554243	</s> </unk>
-0.783422	‚« ‚«	-0.0767198
-0.871767	‚« </s>	-0.0767198
-0.554243	‚ä </unk>
-0.756269	‚«‚å ‚¤	-0.0767198
-0.756269	‚í ‚«‚å	-0.0767198
-0.756269	‚¦ ‚í	-0.0767198
-0.756269	‚Ü ‚¦	-0.0767198
-0.554243	‚¤ </unk>
-0.783422	‚¹ ‚«	-0.0767198
-0.871767	‚¹ ‚Ì	-0.0767198
-0.74904	‚Î ‚¹	-0.0767198

\3-grams:
-0.515374	‚Ì ‚½ ‚Ü
-0.528299	<unk> <s> <s>
-0.456457	<s> <s> </unk>
-0.515374	‚¹ ‚Ì ‚½
-0.405951	<unk> ‚² </unk>
-0.515374	<unk> ‚¨ ‚à
-0.515374	‚¨ ‚à ‚Î
-0.405951	‚« </s> </unk>
-0.528299	‚¹ ‚« ‚«
-0.567436	‚« ‚« </s>
-0.405951	<unk> ‚ä </unk>
-0.515374	‚í ‚«‚å ‚¤
-0.515374	‚¦ ‚í ‚«‚å
-0.515374	‚Ü ‚¦ ‚í
-0.515374	‚½ ‚Ü ‚¦
-0.405951	‚«‚å ‚¤ </unk>
-0.567436	‚Î ‚¹ ‚Ì
-0.528299	<unk> ‚¹ ‚«
-0.511862	‚à ‚Î ‚¹
