[unifb]
-0.0769763

\data\
ngram 1=18
ngram 2=20
ngram 3=19

\1-grams:
-1.69429	</unk>
-1.69429	‚¤	-0.0310313
-1.16588	<s>	-0.0404659
-1.69429	‚«	-0.0310313
-1.69429	‚²	-0.0310313
-1.69429	‚¾	-0.0310313
-1.69429	‚¿	-0.0310313
-1.69429	‚¹	-0.0310313
-1.69429	‚Ç	-0.0310313
-1.69429	‚Á	-0.0310313
-1.69429	‚Ì	-0.0310313
-1.69429	<sp>	-0.0310313
-1.58108	‚Ü	-0.0404659
-1.69429	‚ä	-0.0310313
-1.69429	‚Ð‚å	-0.0310313
-1.69429	‚ç	-0.0310313
-1.69429	‚í	-0.0310313
-1.69429	</s>	-0.0310313

\2-grams:
-0.762742	<unk> <s>	-0.0516276
-0.885944	‚Ð‚å ‚¤	-0.0516276
-0.860314	<s> <s>	-0.0516276
-1.0103	<s> ‚Á	-0.0516276
-0.868448	‚Ì ‚Ü	-0.0516276
-0.885944	‚Á ‚²	-0.0516276
-0.885944	‚í <sp>	-0.0516276
-0.885944	‚² ‚Ì	-0.0516276
-1.0103	‚Ü ‚¿	-0.0516276
-1.0103	‚Ü ‚ç	-0.0516276
-0.885944	</s> </unk>
-0.885944	‚« </s>	-0.0516276
-0.885944	‚ä ‚¹	-0.0516276
-0.885944	<sp> ‚Ð‚å	-0.0516276
-0.885944	‚¹ ‚«	-0.0516276
-0.885944	‚¤ ‚ä	-0.0516276
-0.885944	‚¿ ‚Ç	-0.0516276
-0.885944	‚ç ‚í	-0.0516276
-0.868448	‚¾ ‚Ü	-0.0516276
-0.885944	‚Ç ‚¾	-0.0516276

\3-grams:
-0.608863	<sp> ‚Ð‚å ‚¤
-0.59694	<unk> <s> <s>
-0.661431	<s> <s> ‚Á
-0.600765	‚² ‚Ì ‚Ü
-0.608863	<s> ‚Á ‚²
-0.608863	‚ç ‚í <sp>
-0.608863	‚Á ‚² ‚Ì
-0.661431	‚Ì ‚Ü ‚¿
-0.661431	‚¾ ‚Ü ‚ç
-0.608863	‚« </s> </unk>
-0.608863	‚¹ ‚« </s>
-0.608863	‚¤ ‚ä ‚¹
-0.608863	‚í <sp> ‚Ð‚å
-0.608863	‚ä ‚¹ ‚«
-0.608863	‚Ð‚å ‚¤ ‚ä
-0.608863	‚Ü ‚¿ ‚Ç
-0.608863	‚Ü ‚ç ‚í
-0.600765	‚Ç ‚¾ ‚Ü
-0.608863	‚¿ ‚Ç ‚¾
