[unifb]
-0.158659

\data\
ngram 1=20
ngram 2=25
ngram 3=20

\1-grams:
-0.758085	</unk>
-1.76368	‚«‚å	-0.0445481
-1.76368	‚¤	-0.0445481
-1.76368	‚¢	-0.0445481
-1.24749	<s>	-0.0528719
-1.76368	‚«	-0.0445481
-1.76368	‚±	-0.0445481
-1.76368	‚²	-0.0445481
-1.76368	‚¾	-0.0445481
-1.76368	‚¹	-0.0445481
-1.76368	‚Ì	-0.0445481
-1.76368	‚Î	-0.0445481
-1.76368	‚Ï	-0.0445481
-1.76368	‚Ü	-0.0445481
-1.76368	‚Ú	-0.0445481
-1.76368	‚ä	-0.0445481
-1.76368	‚æ	-0.0445481
-1.76368	‚í	-0.0445481
-1.76368	‚µ‚¥	-0.0445481
-1.76368	</s>	-0.0445481

\2-grams:
-1.12501	<unk> <s>	-0.0411575
-1.39028	<unk> ‚±	-0.0411575
-1.39028	<unk> ‚¹	-0.0411575
-1.39028	<unk> ‚ä	-0.0411575
-1.39028	<unk> ‚í	-0.0411575
-0.676419	<s> </unk>
-0.975663	<s> <s>	-0.0411575
-0.974325	‚Ì ‚¾	-0.0411575
-0.974325	‚± ‚²	-0.0411575
-0.974325	‚Ú ‚Î	-0.0411575
-0.974325	‚² ‚Ú	-0.0411575
-0.974325	‚Î ‚µ‚¥	-0.0411575
-0.974325	‚µ‚¥ ‚Ì	-0.0411575
-0.974325	‚¾ ‚Ü	-0.0411575
-0.603482	‚æ </unk>
-0.603482	</s> </unk>
-0.974325	‚« ‚¢	-0.0411575
-0.974325	‚¢ </s>	-0.0411575
-0.603482	‚ä </unk>
-0.974325	‚Ï ‚«‚å	-0.0411575
-0.974325	‚¹ ‚«	-0.0411575
-0.603482	‚¤ </unk>
-0.974325	‚«‚å ‚¤	-0.0411575
-0.974325	‚í ‚Ï	-0.0411575
-0.974325	‚Ü ‚æ	-0.0411575

\3-grams:
-0.575912	<unk> <s> <s>
-0.453863	<s> <s> </unk>
-0.575474	‚µ‚¥ ‚Ì ‚¾
-0.575474	<unk> ‚± ‚²
-0.575474	‚² ‚Ú ‚Î
-0.575474	‚± ‚² ‚Ú
-0.575474	‚Ú ‚Î ‚µ‚¥
-0.575474	‚Î ‚µ‚¥ ‚Ì
-0.575474	‚Ì ‚¾ ‚Ü
-0.416447	‚Ü ‚æ </unk>
-0.416447	‚¢ </s> </unk>
-0.575474	‚¹ ‚« ‚¢
-0.575474	‚« ‚¢ </s>
-0.416447	<unk> ‚ä </unk>
-0.575474	‚í ‚Ï ‚«‚å
-0.575474	<unk> ‚¹ ‚«
-0.416447	‚«‚å ‚¤ </unk>
-0.575474	‚Ï ‚«‚å ‚¤
-0.575474	<unk> ‚í ‚Ï
-0.575474	‚¾ ‚Ü ‚æ
