[unifb]
-0.661232

\data\
ngram 1=17
ngram 2=28
ngram 3=21

\1-grams:
-0.689375	</unk>
-1.51057	‚«‚å	-0.0603999
-1.51057	‚¤	-0.0603999
-1.51057	‚¦	-0.0603999
-1.51057	‚ 	-0.0603999
-1.22076	<s>	-0.112264
-1.22076	‚«	-0.112264
-1.51057	‚µ	-0.0603999
-1.22076	‚±	-0.112264
-1.51057	‚¹	-0.0603999
-1.51057	‚Ì	-0.0603999
-1.51057	‚È	-0.0603999
-1.22076	<sp>	-0.112264
-1.22076	‚Ü	-0.112264
-1.51057	‚ä	-0.0603999
-1.51057	‚í	-0.0603999
-1.51057	</s>	-0.0603999

\2-grams:
-1.18317	<unk> ‚ 	-0.0431415
-1.06653	<unk> <s>	-0.0431415
-1.06653	<unk> ‚«	-0.0431415
-1.06653	<unk> ‚±	-0.0431415
-1.18317	<unk> ‚¹	-0.0431415
-1.06653	<unk> ‚Ü	-0.0431415
-1.18317	<unk> </s>	-0.0431415
-0.885702	<s> <s>	-0.0431415
-0.885702	<s> <sp>	-0.0431415
-0.911842	‚Ì ‚È	-0.0431415
-0.599513	<sp> </unk>
-0.885702	<sp> <sp>	-0.0431415
-0.599513	‚± </unk>
-0.885702	‚± ‚±	-0.0431415
-0.976845	‚Ü ‚¦	-0.0431415
-0.976845	‚Ü ‚µ	-0.0431415
-0.911842	‚µ ‚Ì	-0.0431415
-0.599513	‚« </unk>
-0.885702	‚« ‚«	-0.0431415
-0.553315	‚ä </unk>
-0.553315	‚¹ </unk>
-0.911842	‚¤ ‚ä	-0.0431415
-0.911842	‚«‚å ‚¤	-0.0431415
-0.553315	</s> </unk>
-0.826742	‚È ‚Ü	-0.0431415
-0.911842	‚  ‚«‚å	-0.0431415
-0.553315	‚í </unk>
-0.911842	‚¦ ‚í	-0.0431415

\3-grams:
-0.596232	<unk> <s> <s>
-0.596232	<s> <s> <sp>
-0.607559	‚µ ‚Ì ‚È
-0.596232	<s> <sp> <sp>
-0.446671	<sp> <sp> </unk>
-0.596232	<unk> ‚± ‚±
-0.446671	‚± ‚± </unk>
-0.634067	<unk> ‚Ü ‚µ
-0.634067	‚È ‚Ü ‚¦
-0.607559	‚Ü ‚µ ‚Ì
-0.596232	<unk> ‚« ‚«
-0.446671	‚« ‚« </unk>
-0.4182	‚¤ ‚ä </unk>
-0.4182	<unk> ‚¹ </unk>
-0.607559	‚«‚å ‚¤ ‚ä
-0.607559	‚  ‚«‚å ‚¤
-0.4182	<unk> </s> </unk>
-0.569256	‚Ì ‚È ‚Ü
-0.607559	<unk> ‚  ‚«‚å
-0.4182	‚¦ ‚í </unk>
-0.607559	‚Ü ‚¦ ‚í
