[unifb]
-0.641692

\data\
ngram 1=17
ngram 2=27
ngram 3=21

\1-grams:
-0.745366	</unk>
-1.49857	‚«‚å	-0.0590824
-1.49857	‚¤	-0.0590824
-1.49857	‚¦	-0.0590824
-1.49857	‚ 	-0.0590824
-1.20926	<s>	-0.109976
-1.20926	‚«	-0.109976
-1.49857	‚µ	-0.0590824
-1.20926	‚±	-0.109976
-1.49857	‚¹	-0.0590824
-1.49857	‚Ì	-0.0590824
-1.49857	‚È	-0.0590824
-1.20926	<sp>	-0.109976
-1.20926	‚Ü	-0.109976
-1.49857	‚ä	-0.0590824
-1.49857	‚í	-0.0590824
-1.49857	</s>	-0.0590824

\2-grams:
-1.14852	<unk> ‚ 	-0.0430475
-1.03469	<unk> <s>	-0.0430475
-1.03469	<unk> ‚«	-0.0430475
-1.03469	<unk> ‚±	-0.0430475
-1.14852	<unk> ‚¹	-0.0430475
-1.03469	<unk> ‚Ü	-0.0430475
-0.881596	<s> <s>	-0.0430475
-0.881596	<s> <sp>	-0.0430475
-0.909744	‚Ì ‚È	-0.0430475
-0.637172	<sp> </unk>
-0.881596	<sp> <sp>	-0.0430475
-0.637172	‚± </unk>
-0.881596	‚± ‚±	-0.0430475
-0.974392	‚Ü ‚¦	-0.0430475
-0.974392	‚Ü ‚µ	-0.0430475
-0.909744	‚µ ‚Ì	-0.0430475
-0.881596	‚« ‚«	-0.0430475
-0.974392	‚« </s>	-0.0430475
-0.589829	‚ä </unk>
-0.589829	‚¹ </unk>
-0.909744	‚¤ ‚ä	-0.0430475
-0.909744	‚«‚å ‚¤	-0.0430475
-0.589829	</s> </unk>
-0.823034	‚È ‚Ü	-0.0430475
-0.909744	‚  ‚«‚å	-0.0430475
-0.589829	‚í </unk>
-0.909744	‚¦ ‚í	-0.0430475

\3-grams:
-0.594417	<unk> <s> <s>
-0.594417	<s> <s> <sp>
-0.606664	‚µ ‚Ì ‚È
-0.594417	<s> <sp> <sp>
-0.469011	<sp> <sp> </unk>
-0.594417	<unk> ‚± ‚±
-0.469011	‚± ‚± </unk>
-0.633109	<unk> ‚Ü ‚µ
-0.633109	‚È ‚Ü ‚¦
-0.606664	‚Ü ‚µ ‚Ì
-0.594417	<unk> ‚« ‚«
-0.633109	‚« ‚« </s>
-0.440799	‚¤ ‚ä </unk>
-0.440799	<unk> ‚¹ </unk>
-0.606664	‚«‚å ‚¤ ‚ä
-0.606664	‚  ‚«‚å ‚¤
-0.440799	‚« </s> </unk>
-0.567493	‚Ì ‚È ‚Ü
-0.606664	<unk> ‚  ‚«‚å
-0.440799	‚¦ ‚í </unk>
-0.606664	‚Ü ‚¦ ‚í
